digraph Tree {
node [shape=box, fontname="helvetica"] ;
edge [fontname="helvetica"] ;
0 [label="Maximum Wind <= 62.5\ngini = 0.708\nsamples = 18295\nvalue = [156, 110, 76, 4707, 1, 1277, 2, 2, 5, 3, 4892\n7064]"] ;
1 [label="Maximum Wind <= 32.5\ngini = 0.59\nsamples = 13572\nvalue = [156, 106, 68, 0, 0, 1277, 2, 2, 5, 0, 4892, 7064]"] ;
0 -> 1 [labeldistance=2.5, labelangle=45, headlabel="True"] ;
2 [label="High Wind SW <= -499.5\ngini = 0.385\nsamples = 6440\nvalue = [156, 89, 49, 0, 0, 1252, 1, 2, 0, 0, 4891, 0]"] ;
1 -> 2 ;
3 [label="Maximum Wind <= 22.5\ngini = 0.096\nsamples = 4287\nvalue = [0, 89, 37, 0, 0, 88, 0, 0, 0, 0, 4073, 0]"] ;
2 -> 3 ;
4 [label="Minimum Pressure <= 3.5\ngini = 0.459\nsamples = 219\nvalue = [0, 9, 4, 0, 0, 55, 0, 0, 0, 0, 151, 0]"] ;
3 -> 4 ;
5 [label="Maximum Wind <= 12.5\ngini = 0.34\nsamples = 105\nvalue = [0, 9, 0, 0, 0, 12, 0, 0, 0, 0, 84, 0]"] ;
4 -> 5 ;
6 [label="gini = 0.0\nsamples = 5\nvalue = [0, 0, 0, 0, 0, 5, 0, 0, 0, 0, 0, 0]"] ;
5 -> 6 ;
7 [label="Maximum Wind <= 17.5\ngini = 0.281\nsamples = 100\nvalue = [0, 9, 0, 0, 0, 7, 0, 0, 0, 0, 84, 0]"] ;
5 -> 7 ;
8 [label="gini = 0.245\nsamples = 7\nvalue = [0, 1, 0, 0, 0, 0, 0, 0, 0, 0, 6, 0]"] ;
7 -> 8 ;
9 [label="gini = 0.284\nsamples = 93\nvalue = [0, 8, 0, 0, 0, 7, 0, 0, 0, 0, 78, 0]"] ;
7 -> 9 ;
10 [label="Minimum Pressure <= 1009.5\ngini = 0.511\nsamples = 114\nvalue = [0, 0, 4, 0, 0, 43, 0, 0, 0, 0, 67, 0]"] ;
4 -> 10 ;
11 [label="Minimum Pressure <= 1008.5\ngini = 0.495\nsamples = 40\nvalue = [0, 0, 0, 0, 0, 22, 0, 0, 0, 0, 18, 0]"] ;
10 -> 11 ;
12 [label="Minimum Pressure <= 1006.5\ngini = 0.5\nsamples = 16\nvalue = [0, 0, 0, 0, 0, 8, 0, 0, 0, 0, 8, 0]"] ;
11 -> 12 ;
13 [label="gini = 0.444\nsamples = 3\nvalue = [0, 0, 0, 0, 0, 2, 0, 0, 0, 0, 1, 0]"] ;
12 -> 13 ;
14 [label="Minimum Pressure <= 1007.5\ngini = 0.497\nsamples = 13\nvalue = [0, 0, 0, 0, 0, 6, 0, 0, 0, 0, 7, 0]"] ;
12 -> 14 ;
15 [label="gini = 0.444\nsamples = 3\nvalue = [0, 0, 0, 0, 0, 1, 0, 0, 0, 0, 2, 0]"] ;
14 -> 15 ;
16 [label="gini = 0.5\nsamples = 10\nvalue = [0, 0, 0, 0, 0, 5, 0, 0, 0, 0, 5, 0]"] ;
14 -> 16 ;
17 [label="gini = 0.486\nsamples = 24\nvalue = [0, 0, 0, 0, 0, 14, 0, 0, 0, 0, 10, 0]"] ;
11 -> 17 ;
18 [label="Minimum Pressure <= 1014.5\ngini = 0.478\nsamples = 74\nvalue = [0, 0, 4, 0, 0, 21, 0, 0, 0, 0, 49, 0]"] ;
10 -> 18 ;
19 [label="Minimum Pressure <= 1013.5\ngini = 0.464\nsamples = 72\nvalue = [0, 0, 4, 0, 0, 19, 0, 0, 0, 0, 49, 0]"] ;
18 -> 19 ;
20 [label="Minimum Pressure <= 1010.5\ngini = 0.43\nsamples = 65\nvalue = [0, 0, 2, 0, 0, 17, 0, 0, 0, 0, 46, 0]"] ;
19 -> 20 ;
21 [label="gini = 0.5\nsamples = 26\nvalue = [0, 0, 1, 0, 0, 9, 0, 0, 0, 0, 16, 0]"] ;
20 -> 21 ;
22 [label="Maximum Wind <= 17.5\ngini = 0.366\nsamples = 39\nvalue = [0, 0, 1, 0, 0, 8, 0, 0, 0, 0, 30, 0]"] ;
20 -> 22 ;
23 [label="Minimum Pressure <= 1012.5\ngini = 0.5\nsamples = 6\nvalue = [0, 0, 0, 0, 0, 3, 0, 0, 0, 0, 3, 0]"] ;
22 -> 23 ;
24 [label="Minimum Pressure <= 1011.5\ngini = 0.375\nsamples = 4\nvalue = [0, 0, 0, 0, 0, 1, 0, 0, 0, 0, 3, 0]"] ;
23 -> 24 ;
25 [label="gini = 0.0\nsamples = 1\nvalue = [0, 0, 0, 0, 0, 0, 0, 0, 0, 0, 1, 0]"] ;
24 -> 25 ;
26 [label="gini = 0.444\nsamples = 3\nvalue = [0, 0, 0, 0, 0, 1, 0, 0, 0, 0, 2, 0]"] ;
24 -> 26 ;
27 [label="gini = 0.0\nsamples = 2\nvalue = [0, 0, 0, 0, 0, 2, 0, 0, 0, 0, 0, 0]"] ;
23 -> 27 ;
28 [label="Minimum Pressure <= 1012.5\ngini = 0.307\nsamples = 33\nvalue = [0, 0, 1, 0, 0, 5, 0, 0, 0, 0, 27, 0]"] ;
22 -> 28 ;
29 [label="Minimum Pressure <= 1011.5\ngini = 0.344\nsamples = 24\nvalue = [0, 0, 1, 0, 0, 4, 0, 0, 0, 0, 19, 0]"] ;
28 -> 29 ;
30 [label="gini = 0.298\nsamples = 11\nvalue = [0, 0, 0, 0, 0, 2, 0, 0, 0, 0, 9, 0]"] ;
29 -> 30 ;
31 [label="gini = 0.379\nsamples = 13\nvalue = [0, 0, 1, 0, 0, 2, 0, 0, 0, 0, 10, 0]"] ;
29 -> 31 ;
32 [label="gini = 0.198\nsamples = 9\nvalue = [0, 0, 0, 0, 0, 1, 0, 0, 0, 0, 8, 0]"] ;
28 -> 32 ;
33 [label="gini = 0.653\nsamples = 7\nvalue = [0, 0, 2, 0, 0, 2, 0, 0, 0, 0, 3, 0]"] ;
19 -> 33 ;
34 [label="gini = 0.0\nsamples = 2\nvalue = [0, 0, 0, 0, 0, 2, 0, 0, 0, 0, 0, 0]"] ;
18 -> 34 ;
35 [label="Minimum Pressure <= 1015.0\ngini = 0.07\nsamples = 4068\nvalue = [0, 80, 33, 0, 0, 33, 0, 0, 0, 0, 3922, 0]"] ;
3 -> 35 ;
36 [label="Maximum Wind <= 27.5\ngini = 0.068\nsamples = 4062\nvalue = [0, 80, 28, 0, 0, 33, 0, 0, 0, 0, 3921, 0]"] ;
35 -> 36 ;
37 [label="Minimum Pressure <= 0.0\ngini = 0.108\nsamples = 2152\nvalue = [0, 74, 19, 0, 0, 28, 0, 0, 0, 0, 2031, 0]"] ;
36 -> 37 ;
38 [label="gini = 0.108\nsamples = 1475\nvalue = [0, 74, 9, 0, 0, 1, 0, 0, 0, 0, 1391, 0]"] ;
37 -> 38 ;
39 [label="Minimum Pressure <= 1008.5\ngini = 0.105\nsamples = 677\nvalue = [0, 0, 10, 0, 0, 27, 0, 0, 0, 0, 640, 0]"] ;
37 -> 39 ;
40 [label="Minimum Pressure <= 1004.5\ngini = 0.176\nsamples = 251\nvalue = [0, 0, 5, 0, 0, 19, 0, 0, 0, 0, 227, 0]"] ;
39 -> 40 ;
41 [label="gini = 0.0\nsamples = 48\nvalue = [0, 0, 0, 0, 0, 0, 0, 0, 0, 0, 48, 0]"] ;
40 -> 41 ;
42 [label="Minimum Pressure <= 1007.5\ngini = 0.213\nsamples = 203\nvalue = [0, 0, 5, 0, 0, 19, 0, 0, 0, 0, 179, 0]"] ;
40 -> 42 ;
43 [label="Minimum Pressure <= 1006.5\ngini = 0.256\nsamples = 138\nvalue = [0, 0, 5, 0, 0, 15, 0, 0, 0, 0, 118, 0]"] ;
42 -> 43 ;
44 [label="Minimum Pressure <= 1005.5\ngini = 0.255\nsamples = 70\nvalue = [0, 0, 5, 0, 0, 5, 0, 0, 0, 0, 60, 0]"] ;
43 -> 44 ;
45 [label="gini = 0.278\nsamples = 25\nvalue = [0, 0, 3, 0, 0, 1, 0, 0, 0, 0, 21, 0]"] ;
44 -> 45 ;
46 [label="gini = 0.239\nsamples = 45\nvalue = [0, 0, 2, 0, 0, 4, 0, 0, 0, 0, 39, 0]"] ;
44 -> 46 ;
47 [label="gini = 0.251\nsamples = 68\nvalue = [0, 0, 0, 0, 0, 10, 0, 0, 0, 0, 58, 0]"] ;
43 -> 47 ;
48 [label="gini = 0.116\nsamples = 65\nvalue = [0, 0, 0, 0, 0, 4, 0, 0, 0, 0, 61, 0]"] ;
42 -> 48 ;
49 [label="Minimum Pressure <= 1011.5\ngini = 0.06\nsamples = 426\nvalue = [0, 0, 5, 0, 0, 8, 0, 0, 0, 0, 413, 0]"] ;
39 -> 49 ;
50 [label="Minimum Pressure <= 1009.5\ngini = 0.041\nsamples = 379\nvalue = [0, 0, 2, 0, 0, 6, 0, 0, 0, 0, 371, 0]"] ;
49 -> 50 ;
51 [label="gini = 0.071\nsamples = 192\nvalue = [0, 0, 1, 0, 0, 6, 0, 0, 0, 0, 185, 0]"] ;
50 -> 51 ;
52 [label="Minimum Pressure <= 1010.5\ngini = 0.011\nsamples = 187\nvalue = [0, 0, 1, 0, 0, 0, 0, 0, 0, 0, 186, 0]"] ;
50 -> 52 ;
53 [label="gini = 0.015\nsamples = 135\nvalue = [0, 0, 1, 0, 0, 0, 0, 0, 0, 0, 134, 0]"] ;
52 -> 53 ;
54 [label="gini = 0.0\nsamples = 52\nvalue = [0, 0, 0, 0, 0, 0, 0, 0, 0, 0, 52, 0]"] ;
52 -> 54 ;
55 [label="Minimum Pressure <= 1012.5\ngini = 0.196\nsamples = 47\nvalue = [0, 0, 3, 0, 0, 2, 0, 0, 0, 0, 42, 0]"] ;
49 -> 55 ;
56 [label="gini = 0.215\nsamples = 34\nvalue = [0, 0, 2, 0, 0, 2, 0, 0, 0, 0, 30, 0]"] ;
55 -> 56 ;
57 [label="Minimum Pressure <= 1013.5\ngini = 0.142\nsamples = 13\nvalue = [0, 0, 1, 0, 0, 0, 0, 0, 0, 0, 12, 0]"] ;
55 -> 57 ;
58 [label="gini = 0.0\nsamples = 4\nvalue = [0, 0, 0, 0, 0, 0, 0, 0, 0, 0, 4, 0]"] ;
57 -> 58 ;
59 [label="gini = 0.198\nsamples = 9\nvalue = [0, 0, 1, 0, 0, 0, 0, 0, 0, 0, 8, 0]"] ;
57 -> 59 ;
60 [label="Minimum Pressure <= 1010.5\ngini = 0.021\nsamples = 1910\nvalue = [0, 6, 9, 0, 0, 5, 0, 0, 0, 0, 1890, 0]"] ;
36 -> 60 ;
61 [label="Minimum Pressure <= 1001.5\ngini = 0.015\nsamples = 1882\nvalue = [0, 6, 8, 0, 0, 0, 0, 0, 0, 0, 1868, 0]"] ;
60 -> 61 ;
62 [label="Minimum Pressure <= -2.5\ngini = 0.012\nsamples = 1115\nvalue = [0, 6, 1, 0, 0, 0, 0, 0, 0, 0, 1108, 0]"] ;
61 -> 62 ;
63 [label="gini = 0.013\nsamples = 1090\nvalue = [0, 6, 1, 0, 0, 0, 0, 0, 0, 0, 1083, 0]"] ;
62 -> 63 ;
64 [label="gini = 0.0\nsamples = 25\nvalue = [0, 0, 0, 0, 0, 0, 0, 0, 0, 0, 25, 0]"] ;
62 -> 64 ;
65 [label="Minimum Pressure <= 1004.5\ngini = 0.018\nsamples = 767\nvalue = [0, 0, 7, 0, 0, 0, 0, 0, 0, 0, 760, 0]"] ;
61 -> 65 ;
66 [label="Minimum Pressure <= 1002.5\ngini = 0.081\nsamples = 94\nvalue = [0, 0, 4, 0, 0, 0, 0, 0, 0, 0, 90, 0]"] ;
65 -> 66 ;
67 [label="gini = 0.091\nsamples = 21\nvalue = [0, 0, 1, 0, 0, 0, 0, 0, 0, 0, 20, 0]"] ;
66 -> 67 ;
68 [label="Minimum Pressure <= 1003.5\ngini = 0.079\nsamples = 73\nvalue = [0, 0, 3, 0, 0, 0, 0, 0, 0, 0, 70, 0]"] ;
66 -> 68 ;
69 [label="gini = 0.074\nsamples = 26\nvalue = [0, 0, 1, 0, 0, 0, 0, 0, 0, 0, 25, 0]"] ;
68 -> 69 ;
70 [label="gini = 0.081\nsamples = 47\nvalue = [0, 0, 2, 0, 0, 0, 0, 0, 0, 0, 45, 0]"] ;
68 -> 70 ;
71 [label="Minimum Pressure <= 1009.5\ngini = 0.009\nsamples = 673\nvalue = [0, 0, 3, 0, 0, 0, 0, 0, 0, 0, 670, 0]"] ;
65 -> 71 ;
72 [label="Minimum Pressure <= 1008.5\ngini = 0.006\nsamples = 633\nvalue = [0, 0, 2, 0, 0, 0, 0, 0, 0, 0, 631, 0]"] ;
71 -> 72 ;
73 [label="Minimum Pressure <= 1006.5\ngini = 0.004\nsamples = 482\nvalue = [0, 0, 1, 0, 0, 0, 0, 0, 0, 0, 481, 0]"] ;
72 -> 73 ;
74 [label="Minimum Pressure <= 1005.5\ngini = 0.009\nsamples = 220\nvalue = [0, 0, 1, 0, 0, 0, 0, 0, 0, 0, 219, 0]"] ;
73 -> 74 ;
75 [label="gini = 0.0\nsamples = 102\nvalue = [0, 0, 0, 0, 0, 0, 0, 0, 0, 0, 102, 0]"] ;
74 -> 75 ;
76 [label="gini = 0.017\nsamples = 118\nvalue = [0, 0, 1, 0, 0, 0, 0, 0, 0, 0, 117, 0]"] ;
74 -> 76 ;
77 [label="gini = 0.0\nsamples = 262\nvalue = [0, 0, 0, 0, 0, 0, 0, 0, 0, 0, 262, 0]"] ;
73 -> 77 ;
78 [label="gini = 0.013\nsamples = 151\nvalue = [0, 0, 1, 0, 0, 0, 0, 0, 0, 0, 150, 0]"] ;
72 -> 78 ;
79 [label="gini = 0.049\nsamples = 40\nvalue = [0, 0, 1, 0, 0, 0, 0, 0, 0, 0, 39, 0]"] ;
71 -> 79 ;
80 [label="Minimum Pressure <= 1013.0\ngini = 0.349\nsamples = 28\nvalue = [0, 0, 1, 0, 0, 5, 0, 0, 0, 0, 22, 0]"] ;
60 -> 80 ;
81 [label="Minimum Pressure <= 1011.5\ngini = 0.311\nsamples = 26\nvalue = [0, 0, 0, 0, 0, 5, 0, 0, 0, 0, 21, 0]"] ;
80 -> 81 ;
82 [label="gini = 0.278\nsamples = 6\nvalue = [0, 0, 0, 0, 0, 1, 0, 0, 0, 0, 5, 0]"] ;
81 -> 82 ;
83 [label="gini = 0.32\nsamples = 20\nvalue = [0, 0, 0, 0, 0, 4, 0, 0, 0, 0, 16, 0]"] ;
81 -> 83 ;
84 [label="gini = 0.5\nsamples = 2\nvalue = [0, 0, 1, 0, 0, 0, 0, 0, 0, 0, 1, 0]"] ;
80 -> 84 ;
85 [label="Minimum Pressure <= 1016.5\ngini = 0.278\nsamples = 6\nvalue = [0, 0, 5, 0, 0, 0, 0, 0, 0, 0, 1, 0]"] ;
35 -> 85 ;
86 [label="gini = 0.0\nsamples = 3\nvalue = [0, 0, 3, 0, 0, 0, 0, 0, 0, 0, 0, 0]"] ;
85 -> 86 ;
87 [label="Minimum Pressure <= 1017.5\ngini = 0.444\nsamples = 3\nvalue = [0, 0, 2, 0, 0, 0, 0, 0, 0, 0, 1, 0]"] ;
85 -> 87 ;
88 [label="gini = 0.0\nsamples = 1\nvalue = [0, 0, 0, 0, 0, 0, 0, 0, 0, 0, 1, 0]"] ;
87 -> 88 ;
89 [label="gini = 0.0\nsamples = 2\nvalue = [0, 0, 2, 0, 0, 0, 0, 0, 0, 0, 0, 0]"] ;
87 -> 89 ;
90 [label="Maximum Wind <= 27.5\ngini = 0.558\nsamples = 2153\nvalue = [156, 0, 12, 0, 0, 1164, 1, 2, 0, 0, 818, 0]"] ;
2 -> 90 ;
91 [label="Maximum Wind <= 22.5\ngini = 0.421\nsamples = 1378\nvalue = [149, 0, 6, 0, 0, 1017, 0, 1, 0, 0, 205, 0]"] ;
90 -> 91 ;
92 [label="Minimum Pressure <= 1004.5\ngini = 0.25\nsamples = 520\nvalue = [62, 0, 0, 0, 0, 446, 0, 0, 0, 0, 12, 0]"] ;
91 -> 92 ;
93 [label="Minimum Pressure <= 1003.5\ngini = 0.444\nsamples = 3\nvalue = [2, 0, 0, 0, 0, 1, 0, 0, 0, 0, 0, 0]"] ;
92 -> 93 ;
94 [label="gini = 0.0\nsamples = 1\nvalue = [0, 0, 0, 0, 0, 1, 0, 0, 0, 0, 0, 0]"] ;
93 -> 94 ;
95 [label="gini = 0.0\nsamples = 2\nvalue = [2, 0, 0, 0, 0, 0, 0, 0, 0, 0, 0, 0]"] ;
93 -> 95 ;
96 [label="Minimum Pressure <= 1006.5\ngini = 0.245\nsamples = 517\nvalue = [60, 0, 0, 0, 0, 445, 0, 0, 0, 0, 12, 0]"] ;
92 -> 96 ;
97 [label="gini = 0.0\nsamples = 36\nvalue = [0, 0, 0, 0, 0, 36, 0, 0, 0, 0, 0, 0]"] ;
96 -> 97 ;
98 [label="Minimum Pressure <= 1007.5\ngini = 0.261\nsamples = 481\nvalue = [60, 0, 0, 0, 0, 409, 0, 0, 0, 0, 12, 0]"] ;
96 -> 98 ;
99 [label="Maximum Wind <= 17.5\ngini = 0.384\nsamples = 69\nvalue = [15, 0, 0, 0, 0, 52, 0, 0, 0, 0, 2, 0]"] ;
98 -> 99 ;
100 [label="gini = 0.5\nsamples = 4\nvalue = [2, 0, 0, 0, 0, 2, 0, 0, 0, 0, 0, 0]"] ;
99 -> 100 ;
101 [label="gini = 0.367\nsamples = 65\nvalue = [13, 0, 0, 0, 0, 50, 0, 0, 0, 0, 2, 0]"] ;
99 -> 101 ;
102 [label="Minimum Pressure <= 1008.5\ngini = 0.237\nsamples = 412\nvalue = [45, 0, 0, 0, 0, 357, 0, 0, 0, 0, 10, 0]"] ;
98 -> 102 ;
103 [label="Maximum Wind <= 17.5\ngini = 0.087\nsamples = 89\nvalue = [3, 0, 0, 0, 0, 85, 0, 0, 0, 0, 1, 0]"] ;
102 -> 103 ;
104 [label="gini = 0.0\nsamples = 8\nvalue = [0, 0, 0, 0, 0, 8, 0, 0, 0, 0, 0, 0]"] ;
103 -> 104 ;
105 [label="gini = 0.095\nsamples = 81\nvalue = [3, 0, 0, 0, 0, 77, 0, 0, 0, 0, 1, 0]"] ;
103 -> 105 ;
106 [label="Minimum Pressure <= 1009.5\ngini = 0.273\nsamples = 323\nvalue = [42, 0, 0, 0, 0, 272, 0, 0, 0, 0, 9, 0]"] ;
102 -> 106 ;
107 [label="Maximum Wind <= 17.5\ngini = 0.333\nsamples = 131\nvalue = [25, 0, 0, 0, 0, 104, 0, 0, 0, 0, 2, 0]"] ;
106 -> 107 ;
108 [label="gini = 0.397\nsamples = 11\nvalue = [3, 0, 0, 0, 0, 8, 0, 0, 0, 0, 0, 0]"] ;
107 -> 108 ;
109 [label="gini = 0.326\nsamples = 120\nvalue = [22, 0, 0, 0, 0, 96, 0, 0, 0, 0, 2, 0]"] ;
107 -> 109 ;
110 [label="Minimum Pressure <= 1012.5\ngini = 0.225\nsamples = 192\nvalue = [17, 0, 0, 0, 0, 168, 0, 0, 0, 0, 7, 0]"] ;
106 -> 110 ;
111 [label="Minimum Pressure <= 1010.5\ngini = 0.255\nsamples = 167\nvalue = [17, 0, 0, 0, 0, 143, 0, 0, 0, 0, 7, 0]"] ;
110 -> 111 ;
112 [label="Maximum Wind <= 17.5\ngini = 0.21\nsamples = 110\nvalue = [12, 0, 0, 0, 0, 97, 0, 0, 0, 0, 1, 0]"] ;
111 -> 112 ;
113 [label="gini = 0.272\nsamples = 13\nvalue = [1, 0, 0, 0, 0, 11, 0, 0, 0, 0, 1, 0]"] ;
112 -> 113 ;
114 [label="gini = 0.201\nsamples = 97\nvalue = [11, 0, 0, 0, 0, 86, 0, 0, 0, 0, 0, 0]"] ;
112 -> 114 ;
115 [label="Minimum Pressure <= 1011.5\ngini = 0.33\nsamples = 57\nvalue = [5, 0, 0, 0, 0, 46, 0, 0, 0, 0, 6, 0]"] ;
111 -> 115 ;
116 [label="Maximum Wind <= 17.5\ngini = 0.386\nsamples = 38\nvalue = [3, 0, 0, 0, 0, 29, 0, 0, 0, 0, 6, 0]"] ;
115 -> 116 ;
117 [label="gini = 0.0\nsamples = 10\nvalue = [0, 0, 0, 0, 0, 10, 0, 0, 0, 0, 0, 0]"] ;
116 -> 117 ;
118 [label="gini = 0.482\nsamples = 28\nvalue = [3, 0, 0, 0, 0, 19, 0, 0, 0, 0, 6, 0]"] ;
116 -> 118 ;
119 [label="Maximum Wind <= 17.5\ngini = 0.188\nsamples = 19\nvalue = [2, 0, 0, 0, 0, 17, 0, 0, 0, 0, 0, 0]"] ;
115 -> 119 ;
120 [label="gini = 0.375\nsamples = 8\nvalue = [2, 0, 0, 0, 0, 6, 0, 0, 0, 0, 0, 0]"] ;
119 -> 120 ;
121 [label="gini = 0.0\nsamples = 11\nvalue = [0, 0, 0, 0, 0, 11, 0, 0, 0, 0, 0, 0]"] ;
119 -> 121 ;
122 [label="gini = 0.0\nsamples = 25\nvalue = [0, 0, 0, 0, 0, 25, 0, 0, 0, 0, 0, 0]"] ;
110 -> 122 ;
123 [label="Minimum Pressure <= 1007.5\ngini = 0.496\nsamples = 858\nvalue = [87, 0, 6, 0, 0, 571, 0, 1, 0, 0, 193, 0]"] ;
91 -> 123 ;
124 [label="Minimum Pressure <= 1003.5\ngini = 0.497\nsamples = 377\nvalue = [4, 0, 6, 0, 0, 230, 0, 1, 0, 0, 136, 0]"] ;
123 -> 124 ;
125 [label="Minimum Pressure <= 1002.5\ngini = 0.568\nsamples = 18\nvalue = [2, 0, 0, 0, 0, 6, 0, 0, 0, 0, 10, 0]"] ;
124 -> 125 ;
126 [label="Minimum Pressure <= 1001.0\ngini = 0.611\nsamples = 6\nvalue = [1, 0, 0, 0, 0, 3, 0, 0, 0, 0, 2, 0]"] ;
125 -> 126 ;
127 [label="gini = 0.444\nsamples = 3\nvalue = [0, 0, 0, 0, 0, 1, 0, 0, 0, 0, 2, 0]"] ;
126 -> 127 ;
128 [label="gini = 0.444\nsamples = 3\nvalue = [1, 0, 0, 0, 0, 2, 0, 0, 0, 0, 0, 0]"] ;
126 -> 128 ;
129 [label="gini = 0.486\nsamples = 12\nvalue = [1, 0, 0, 0, 0, 3, 0, 0, 0, 0, 8, 0]"] ;
125 -> 129 ;
130 [label="Minimum Pressure <= 1004.5\ngini = 0.487\nsamples = 359\nvalue = [2, 0, 6, 0, 0, 224, 0, 1, 0, 0, 126, 0]"] ;
124 -> 130 ;
131 [label="gini = 0.529\nsamples = 27\nvalue = [0, 0, 2, 0, 0, 17, 0, 1, 0, 0, 7, 0]"] ;
130 -> 131 ;
132 [label="Minimum Pressure <= 1006.5\ngini = 0.483\nsamples = 332\nvalue = [2, 0, 4, 0, 0, 207, 0, 0, 0, 0, 119, 0]"] ;
130 -> 132 ;
133 [label="Minimum Pressure <= 1005.5\ngini = 0.498\nsamples = 177\nvalue = [0, 0, 4, 0, 0, 106, 0, 0, 0, 0, 67, 0]"] ;
132 -> 133 ;
134 [label="gini = 0.487\nsamples = 69\nvalue = [0, 0, 1, 0, 0, 42, 0, 0, 0, 0, 26, 0]"] ;
133 -> 134 ;
135 [label="gini = 0.504\nsamples = 108\nvalue = [0, 0, 3, 0, 0, 64, 0, 0, 0, 0, 41, 0]"] ;
133 -> 135 ;
136 [label="gini = 0.463\nsamples = 155\nvalue = [2, 0, 0, 0, 0, 101, 0, 0, 0, 0, 52, 0]"] ;
132 -> 136 ;
137 [label="Minimum Pressure <= 1009.5\ngini = 0.454\nsamples = 481\nvalue = [83, 0, 0, 0, 0, 341, 0, 0, 0, 0, 57, 0]"] ;
123 -> 137 ;
138 [label="Minimum Pressure <= 1008.5\ngini = 0.445\nsamples = 351\nvalue = [48, 0, 0, 0, 0, 252, 0, 0, 0, 0, 51, 0]"] ;
137 -> 138 ;
139 [label="gini = 0.463\nsamples = 204\nvalue = [26, 0, 0, 0, 0, 143, 0, 0, 0, 0, 35, 0]"] ;
138 -> 139 ;
140 [label="gini = 0.416\nsamples = 147\nvalue = [22, 0, 0, 0, 0, 109, 0, 0, 0, 0, 16, 0]"] ;
138 -> 140 ;
141 [label="Minimum Pressure <= 1011.5\ngini = 0.457\nsamples = 130\nvalue = [35, 0, 0, 0, 0, 89, 0, 0, 0, 0, 6, 0]"] ;
137 -> 141 ;
142 [label="Minimum Pressure <= 1010.5\ngini = 0.47\nsamples = 110\nvalue = [35, 0, 0, 0, 0, 72, 0, 0, 0, 0, 3, 0]"] ;
141 -> 142 ;
143 [label="gini = 0.438\nsamples = 83\nvalue = [25, 0, 0, 0, 0, 57, 0, 0, 0, 0, 1, 0]"] ;
142 -> 143 ;
144 [label="gini = 0.549\nsamples = 27\nvalue = [10, 0, 0, 0, 0, 15, 0, 0, 0, 0, 2, 0]"] ;
142 -> 144 ;
145 [label="Minimum Pressure <= 1013.5\ngini = 0.255\nsamples = 20\nvalue = [0, 0, 0, 0, 0, 17, 0, 0, 0, 0, 3, 0]"] ;
141 -> 145 ;
146 [label="Minimum Pressure <= 1012.5\ngini = 0.124\nsamples = 15\nvalue = [0, 0, 0, 0, 0, 14, 0, 0, 0, 0, 1, 0]"] ;
145 -> 146 ;
147 [label="gini = 0.0\nsamples = 9\nvalue = [0, 0, 0, 0, 0, 9, 0, 0, 0, 0, 0, 0]"] ;
146 -> 147 ;
148 [label="gini = 0.278\nsamples = 6\nvalue = [0, 0, 0, 0, 0, 5, 0, 0, 0, 0, 1, 0]"] ;
146 -> 148 ;
149 [label="Minimum Pressure <= 1014.5\ngini = 0.48\nsamples = 5\nvalue = [0, 0, 0, 0, 0, 3, 0, 0, 0, 0, 2, 0]"] ;
145 -> 149 ;
150 [label="gini = 0.5\nsamples = 4\nvalue = [0, 0, 0, 0, 0, 2, 0, 0, 0, 0, 2, 0]"] ;
149 -> 150 ;
151 [label="gini = 0.0\nsamples = 1\nvalue = [0, 0, 0, 0, 0, 1, 0, 0, 0, 0, 0, 0]"] ;
149 -> 151 ;
152 [label="Minimum Pressure <= 1008.5\ngini = 0.338\nsamples = 775\nvalue = [7, 0, 6, 0, 0, 147, 1, 1, 0, 0, 613, 0]"] ;
90 -> 152 ;
153 [label="Minimum Pressure <= 1007.5\ngini = 0.296\nsamples = 705\nvalue = [3, 0, 0, 0, 0, 121, 1, 1, 0, 0, 579, 0]"] ;
152 -> 153 ;
154 [label="Minimum Pressure <= 1006.5\ngini = 0.282\nsamples = 649\nvalue = [2, 0, 0, 0, 0, 105, 1, 1, 0, 0, 540, 0]"] ;
153 -> 154 ;
155 [label="Minimum Pressure <= 1002.5\ngini = 0.267\nsamples = 521\nvalue = [1, 0, 0, 0, 0, 79, 1, 1, 0, 0, 439, 0]"] ;
154 -> 155 ;
156 [label="Minimum Pressure <= 1001.5\ngini = 0.368\nsamples = 69\nvalue = [0, 0, 0, 0, 0, 14, 1, 1, 0, 0, 53, 0]"] ;
155 -> 156 ;
157 [label="Minimum Pressure <= 999.5\ngini = 0.214\nsamples = 41\nvalue = [0, 0, 0, 0, 0, 5, 0, 0, 0, 0, 36, 0]"] ;
156 -> 157 ;
158 [label="Minimum Pressure <= 998.5\ngini = 0.444\nsamples = 9\nvalue = [0, 0, 0, 0, 0, 3, 0, 0, 0, 0, 6, 0]"] ;
157 -> 158 ;
159 [label="Minimum Pressure <= 996.5\ngini = 0.32\nsamples = 5\nvalue = [0, 0, 0, 0, 0, 1, 0, 0, 0, 0, 4, 0]"] ;
158 -> 159 ;
160 [label="gini = 0.0\nsamples = 1\nvalue = [0, 0, 0, 0, 0, 0, 0, 0, 0, 0, 1, 0]"] ;
159 -> 160 ;
161 [label="gini = 0.375\nsamples = 4\nvalue = [0, 0, 0, 0, 0, 1, 0, 0, 0, 0, 3, 0]"] ;
159 -> 161 ;
162 [label="gini = 0.5\nsamples = 4\nvalue = [0, 0, 0, 0, 0, 2, 0, 0, 0, 0, 2, 0]"] ;
158 -> 162 ;
163 [label="Minimum Pressure <= 1000.5\ngini = 0.117\nsamples = 32\nvalue = [0, 0, 0, 0, 0, 2, 0, 0, 0, 0, 30, 0]"] ;
157 -> 163 ;
164 [label="gini = 0.124\nsamples = 15\nvalue = [0, 0, 0, 0, 0, 1, 0, 0, 0, 0, 14, 0]"] ;
163 -> 164 ;
165 [label="gini = 0.111\nsamples = 17\nvalue = [0, 0, 0, 0, 0, 1, 0, 0, 0, 0, 16, 0]"] ;
163 -> 165 ;
166 [label="gini = 0.526\nsamples = 28\nvalue = [0, 0, 0, 0, 0, 9, 1, 1, 0, 0, 17, 0]"] ;
156 -> 166 ;
167 [label="Minimum Pressure <= 1005.5\ngini = 0.25\nsamples = 452\nvalue = [1, 0, 0, 0, 0, 65, 0, 0, 0, 0, 386, 0]"] ;
155 -> 167 ;
168 [label="Minimum Pressure <= 1004.5\ngini = 0.261\nsamples = 253\nvalue = [0, 0, 0, 0, 0, 39, 0, 0, 0, 0, 214, 0]"] ;
167 -> 168 ;
169 [label="Minimum Pressure <= 1003.5\ngini = 0.269\nsamples = 106\nvalue = [0, 0, 0, 0, 0, 17, 0, 0, 0, 0, 89, 0]"] ;
168 -> 169 ;
170 [label="gini = 0.26\nsamples = 39\nvalue = [0, 0, 0, 0, 0, 6, 0, 0, 0, 0, 33, 0]"] ;
169 -> 170 ;
171 [label="gini = 0.274\nsamples = 67\nvalue = [0, 0, 0, 0, 0, 11, 0, 0, 0, 0, 56, 0]"] ;
169 -> 171 ;
172 [label="gini = 0.255\nsamples = 147\nvalue = [0, 0, 0, 0, 0, 22, 0, 0, 0, 0, 125, 0]"] ;
168 -> 172 ;
173 [label="gini = 0.236\nsamples = 199\nvalue = [1, 0, 0, 0, 0, 26, 0, 0, 0, 0, 172, 0]"] ;
167 -> 173 ;
174 [label="gini = 0.336\nsamples = 128\nvalue = [1, 0, 0, 0, 0, 26, 0, 0, 0, 0, 101, 0]"] ;
154 -> 174 ;
175 [label="gini = 0.433\nsamples = 56\nvalue = [1, 0, 0, 0, 0, 16, 0, 0, 0, 0, 39, 0]"] ;
153 -> 175 ;
176 [label="Minimum Pressure <= 1016.5\ngini = 0.616\nsamples = 70\nvalue = [4, 0, 6, 0, 0, 26, 0, 0, 0, 0, 34, 0]"] ;
152 -> 176 ;
177 [label="Minimum Pressure <= 1009.5\ngini = 0.549\nsamples = 64\nvalue = [4, 0, 0, 0, 0, 26, 0, 0, 0, 0, 34, 0]"] ;
176 -> 177 ;
178 [label="gini = 0.434\nsamples = 22\nvalue = [0, 0, 0, 0, 0, 15, 0, 0, 0, 0, 7, 0]"] ;
177 -> 178 ;
179 [label="Minimum Pressure <= 1010.5\ngini = 0.509\nsamples = 42\nvalue = [4, 0, 0, 0, 0, 11, 0, 0, 0, 0, 27, 0]"] ;
177 -> 179 ;
180 [label="gini = 0.395\nsamples = 29\nvalue = [4, 0, 0, 0, 0, 3, 0, 0, 0, 0, 22, 0]"] ;
179 -> 180 ;
181 [label="Minimum Pressure <= 1011.5\ngini = 0.473\nsamples = 13\nvalue = [0, 0, 0, 0, 0, 8, 0, 0, 0, 0, 5, 0]"] ;
179 -> 181 ;
182 [label="gini = 0.0\nsamples = 5\nvalue = [0, 0, 0, 0, 0, 5, 0, 0, 0, 0, 0, 0]"] ;
181 -> 182 ;
183 [label="Minimum Pressure <= 1013.0\ngini = 0.469\nsamples = 8\nvalue = [0, 0, 0, 0, 0, 3, 0, 0, 0, 0, 5, 0]"] ;
181 -> 183 ;
184 [label="gini = 0.408\nsamples = 7\nvalue = [0, 0, 0, 0, 0, 2, 0, 0, 0, 0, 5, 0]"] ;
183 -> 184 ;
185 [label="gini = 0.0\nsamples = 1\nvalue = [0, 0, 0, 0, 0, 1, 0, 0, 0, 0, 0, 0]"] ;
183 -> 185 ;
186 [label="gini = 0.0\nsamples = 6\nvalue = [0, 0, 6, 0, 0, 0, 0, 0, 0, 0, 0, 0]"] ;
176 -> 186 ;
187 [label="Minimum Pressure <= 1014.5\ngini = 0.019\nsamples = 7132\nvalue = [0, 17, 19, 0, 0, 25, 1, 0, 5, 0, 1, 7064]"] ;
1 -> 187 ;
188 [label="Moderate Wind SW <= 85.0\ngini = 0.018\nsamples = 7130\nvalue = [0, 17, 17, 0, 0, 25, 1, 0, 5, 0, 1, 7064]"] ;
187 -> 188 ;
189 [label="Low Wind SW <= 155.0\ngini = 0.018\nsamples = 7129\nvalue = [0, 17, 17, 0, 0, 25, 1, 0, 4, 0, 1, 7064]"] ;
188 -> 189 ;
190 [label="Low Wind NW <= -499.5\ngini = 0.018\nsamples = 7121\nvalue = [0, 17, 15, 0, 0, 25, 1, 0, 4, 0, 1, 7058]"] ;
189 -> 190 ;
191 [label="Minimum Pressure <= -10.5\ngini = 0.011\nsamples = 5653\nvalue = [0, 17, 15, 0, 0, 0, 0, 0, 0, 0, 0, 5621]"] ;
190 -> 191 ;
192 [label="Maximum Wind <= 47.5\ngini = 0.016\nsamples = 3811\nvalue = [0, 16, 15, 0, 0, 0, 0, 0, 0, 0, 0, 3780]"] ;
191 -> 192 ;
193 [label="Maximum Wind <= 42.5\ngini = 0.02\nsamples = 2970\nvalue = [0, 16, 14, 0, 0, 0, 0, 0, 0, 0, 0, 2940]"] ;
192 -> 193 ;
194 [label="Maximum Wind <= 37.5\ngini = 0.013\nsamples = 1045\nvalue = [0, 6, 1, 0, 0, 0, 0, 0, 0, 0, 0, 1038]"] ;
193 -> 194 ;
195 [label="gini = 0.018\nsamples = 647\nvalue = [0, 5, 1, 0, 0, 0, 0, 0, 0, 0, 0, 641]"] ;
194 -> 195 ;
196 [label="gini = 0.005\nsamples = 398\nvalue = [0, 1, 0, 0, 0, 0, 0, 0, 0, 0, 0, 397]"] ;
194 -> 196 ;
197 [label="gini = 0.024\nsamples = 1925\nvalue = [0, 10, 13, 0, 0, 0, 0, 0, 0, 0, 0, 1902]"] ;
193 -> 197 ;
198 [label="Maximum Wind <= 52.5\ngini = 0.002\nsamples = 841\nvalue = [0, 0, 1, 0, 0, 0, 0, 0, 0, 0, 0, 840]"] ;
192 -> 198 ;
199 [label="gini = 0.0\nsamples = 330\nvalue = [0, 0, 0, 0, 0, 0, 0, 0, 0, 0, 0, 330]"] ;
198 -> 199 ;
200 [label="Maximum Wind <= 57.5\ngini = 0.004\nsamples = 511\nvalue = [0, 0, 1, 0, 0, 0, 0, 0, 0, 0, 0, 510]"] ;
198 -> 200 ;
201 [label="gini = 0.007\nsamples = 280\nvalue = [0, 0, 1, 0, 0, 0, 0, 0, 0, 0, 0, 279]"] ;
200 -> 201 ;
202 [label="gini = 0.0\nsamples = 231\nvalue = [0, 0, 0, 0, 0, 0, 0, 0, 0, 0, 0, 231]"] ;
200 -> 202 ;
203 [label="Minimum Pressure <= 1003.5\ngini = 0.001\nsamples = 1842\nvalue = [0, 1, 0, 0, 0, 0, 0, 0, 0, 0, 0, 1841]"] ;
191 -> 203 ;
204 [label="gini = 0.0\nsamples = 1456\nvalue = [0, 0, 0, 0, 0, 0, 0, 0, 0, 0, 0, 1456]"] ;
203 -> 204 ;
205 [label="Maximum Wind <= 37.5\ngini = 0.005\nsamples = 386\nvalue = [0, 1, 0, 0, 0, 0, 0, 0, 0, 0, 0, 385]"] ;
203 -> 205 ;
206 [label="gini = 0.0\nsamples = 319\nvalue = [0, 0, 0, 0, 0, 0, 0, 0, 0, 0, 0, 319]"] ;
205 -> 206 ;
207 [label="Minimum Pressure <= 1004.5\ngini = 0.029\nsamples = 67\nvalue = [0, 1, 0, 0, 0, 0, 0, 0, 0, 0, 0, 66]"] ;
205 -> 207 ;
208 [label="Maximum Wind <= 42.5\ngini = 0.067\nsamples = 29\nvalue = [0, 1, 0, 0, 0, 0, 0, 0, 0, 0, 0, 28]"] ;
207 -> 208 ;
209 [label="gini = 0.087\nsamples = 22\nvalue = [0, 1, 0, 0, 0, 0, 0, 0, 0, 0, 0, 21]"] ;
208 -> 209 ;
210 [label="gini = 0.0\nsamples = 7\nvalue = [0, 0, 0, 0, 0, 0, 0, 0, 0, 0, 0, 7]"] ;
208 -> 210 ;
211 [label="gini = 0.0\nsamples = 38\nvalue = [0, 0, 0, 0, 0, 0, 0, 0, 0, 0, 0, 38]"] ;
207 -> 211 ;
212 [label="Maximum Wind <= 37.5\ngini = 0.041\nsamples = 1468\nvalue = [0, 0, 0, 0, 0, 25, 1, 0, 4, 0, 1, 1437]"] ;
190 -> 212 ;
213 [label="Low Wind SE <= 5.0\ngini = 0.111\nsamples = 394\nvalue = [0, 0, 0, 0, 0, 19, 1, 0, 2, 0, 1, 371]"] ;
212 -> 213 ;
214 [label="Minimum Pressure <= 1002.5\ngini = 0.208\nsamples = 120\nvalue = [0, 0, 0, 0, 0, 13, 0, 0, 0, 0, 1, 106]"] ;
213 -> 214 ;
215 [label="Minimum Pressure <= 1000.5\ngini = 0.415\nsamples = 17\nvalue = [0, 0, 0, 0, 0, 5, 0, 0, 0, 0, 0, 12]"] ;
214 -> 215 ;
216 [label="gini = 0.0\nsamples = 4\nvalue = [0, 0, 0, 0, 0, 0, 0, 0, 0, 0, 0, 4]"] ;
215 -> 216 ;
217 [label="Low Wind NW <= 15.0\ngini = 0.473\nsamples = 13\nvalue = [0, 0, 0, 0, 0, 5, 0, 0, 0, 0, 0, 8]"] ;
215 -> 217 ;
218 [label="gini = 0.0\nsamples = 2\nvalue = [0, 0, 0, 0, 0, 2, 0, 0, 0, 0, 0, 0]"] ;
217 -> 218 ;
219 [label="Low Wind NW <= 70.0\ngini = 0.397\nsamples = 11\nvalue = [0, 0, 0, 0, 0, 3, 0, 0, 0, 0, 0, 8]"] ;
217 -> 219 ;
220 [label="Low Wind NE <= 35.0\ngini = 0.245\nsamples = 7\nvalue = [0, 0, 0, 0, 0, 1, 0, 0, 0, 0, 0, 6]"] ;
219 -> 220 ;
221 [label="gini = 0.0\nsamples = 5\nvalue = [0, 0, 0, 0, 0, 0, 0, 0, 0, 0, 0, 5]"] ;
220 -> 221 ;
222 [label="gini = 0.5\nsamples = 2\nvalue = [0, 0, 0, 0, 0, 1, 0, 0, 0, 0, 0, 1]"] ;
220 -> 222 ;
223 [label="Low Wind NE <= 85.0\ngini = 0.5\nsamples = 4\nvalue = [0, 0, 0, 0, 0, 2, 0, 0, 0, 0, 0, 2]"] ;
219 -> 223 ;
224 [label="gini = 0.0\nsamples = 2\nvalue = [0, 0, 0, 0, 0, 2, 0, 0, 0, 0, 0, 0]"] ;
223 -> 224 ;
225 [label="gini = 0.0\nsamples = 2\nvalue = [0, 0, 0, 0, 0, 0, 0, 0, 0, 0, 0, 2]"] ;
223 -> 225 ;
226 [label="Low Wind NW <= 72.5\ngini = 0.161\nsamples = 103\nvalue = [0, 0, 0, 0, 0, 8, 0, 0, 0, 0, 1, 94]"] ;
214 -> 226 ;
227 [label="Minimum Pressure <= 1005.5\ngini = 0.138\nsamples = 95\nvalue = [0, 0, 0, 0, 0, 6, 0, 0, 0, 0, 1, 88]"] ;
226 -> 227 ;
228 [label="Low Wind NE <= 37.5\ngini = 0.093\nsamples = 83\nvalue = [0, 0, 0, 0, 0, 3, 0, 0, 0, 0, 1, 79]"] ;
227 -> 228 ;
229 [label="Low Wind NE <= 32.5\ngini = 0.188\nsamples = 39\nvalue = [0, 0, 0, 0, 0, 3, 0, 0, 0, 0, 1, 35]"] ;
228 -> 229 ;
230 [label="Low Wind SW <= 7.5\ngini = 0.148\nsamples = 38\nvalue = [0, 0, 0, 0, 0, 2, 0, 0, 0, 0, 1, 35]"] ;
229 -> 230 ;
231 [label="Low Wind NE <= 10.0\ngini = 0.234\nsamples = 23\nvalue = [0, 0, 0, 0, 0, 2, 0, 0, 0, 0, 1, 20]"] ;
230 -> 231 ;
232 [label="Low Wind NW <= 65.0\ngini = 0.449\nsamples = 7\nvalue = [0, 0, 0, 0, 0, 1, 0, 0, 0, 0, 1, 5]"] ;
231 -> 232 ;
233 [label="Low Wind NW <= 50.0\ngini = 0.56\nsamples = 5\nvalue = [0, 0, 0, 0, 0, 1, 0, 0, 0, 0, 1, 3]"] ;
232 -> 233 ;
234 [label="Minimum Pressure <= 1004.5\ngini = 0.444\nsamples = 3\nvalue = [0, 0, 0, 0, 0, 0, 0, 0, 0, 0, 1, 2]"] ;
233 -> 234 ;
235 [label="gini = 0.5\nsamples = 2\nvalue = [0, 0, 0, 0, 0, 0, 0, 0, 0, 0, 1, 1]"] ;
234 -> 235 ;
236 [label="gini = 0.0\nsamples = 1\nvalue = [0, 0, 0, 0, 0, 0, 0, 0, 0, 0, 0, 1]"] ;
234 -> 236 ;
237 [label="gini = 0.5\nsamples = 2\nvalue = [0, 0, 0, 0, 0, 1, 0, 0, 0, 0, 0, 1]"] ;
233 -> 237 ;
238 [label="gini = 0.0\nsamples = 2\nvalue = [0, 0, 0, 0, 0, 0, 0, 0, 0, 0, 0, 2]"] ;
232 -> 238 ;
239 [label="Minimum Pressure <= 1004.5\ngini = 0.117\nsamples = 16\nvalue = [0, 0, 0, 0, 0, 1, 0, 0, 0, 0, 0, 15]"] ;
231 -> 239 ;
240 [label="gini = 0.0\nsamples = 9\nvalue = [0, 0, 0, 0, 0, 0, 0, 0, 0, 0, 0, 9]"] ;
239 -> 240 ;
241 [label="Low Wind NW <= 15.0\ngini = 0.245\nsamples = 7\nvalue = [0, 0, 0, 0, 0, 1, 0, 0, 0, 0, 0, 6]"] ;
239 -> 241 ;
242 [label="gini = 0.0\nsamples = 3\nvalue = [0, 0, 0, 0, 0, 0, 0, 0, 0, 0, 0, 3]"] ;
241 -> 242 ;
243 [label="Low Wind NE <= 25.0\ngini = 0.375\nsamples = 4\nvalue = [0, 0, 0, 0, 0, 1, 0, 0, 0, 0, 0, 3]"] ;
241 -> 243 ;
244 [label="gini = 0.0\nsamples = 1\nvalue = [0, 0, 0, 0, 0, 0, 0, 0, 0, 0, 0, 1]"] ;
243 -> 244 ;
245 [label="gini = 0.444\nsamples = 3\nvalue = [0, 0, 0, 0, 0, 1, 0, 0, 0, 0, 0, 2]"] ;
243 -> 245 ;
246 [label="gini = 0.0\nsamples = 15\nvalue = [0, 0, 0, 0, 0, 0, 0, 0, 0, 0, 0, 15]"] ;
230 -> 246 ;
247 [label="gini = 0.0\nsamples = 1\nvalue = [0, 0, 0, 0, 0, 1, 0, 0, 0, 0, 0, 0]"] ;
229 -> 247 ;
248 [label="gini = 0.0\nsamples = 44\nvalue = [0, 0, 0, 0, 0, 0, 0, 0, 0, 0, 0, 44]"] ;
228 -> 248 ;
249 [label="Low Wind NW <= 35.0\ngini = 0.375\nsamples = 12\nvalue = [0, 0, 0, 0, 0, 3, 0, 0, 0, 0, 0, 9]"] ;
227 -> 249 ;
250 [label="Low Wind NE <= 50.0\ngini = 0.375\nsamples = 4\nvalue = [0, 0, 0, 0, 0, 3, 0, 0, 0, 0, 0, 1]"] ;
249 -> 250 ;
251 [label="Low Wind NE <= 20.0\ngini = 0.5\nsamples = 2\nvalue = [0, 0, 0, 0, 0, 1, 0, 0, 0, 0, 0, 1]"] ;
250 -> 251 ;
252 [label="gini = 0.0\nsamples = 1\nvalue = [0, 0, 0, 0, 0, 1, 0, 0, 0, 0, 0, 0]"] ;
251 -> 252 ;
253 [label="gini = 0.0\nsamples = 1\nvalue = [0, 0, 0, 0, 0, 0, 0, 0, 0, 0, 0, 1]"] ;
251 -> 253 ;
254 [label="gini = 0.0\nsamples = 2\nvalue = [0, 0, 0, 0, 0, 2, 0, 0, 0, 0, 0, 0]"] ;
250 -> 254 ;
255 [label="gini = 0.0\nsamples = 8\nvalue = [0, 0, 0, 0, 0, 0, 0, 0, 0, 0, 0, 8]"] ;
249 -> 255 ;
256 [label="Low Wind NE <= 85.0\ngini = 0.375\nsamples = 8\nvalue = [0, 0, 0, 0, 0, 2, 0, 0, 0, 0, 0, 6]"] ;
226 -> 256 ;
257 [label="gini = 0.0\nsamples = 2\nvalue = [0, 0, 0, 0, 0, 2, 0, 0, 0, 0, 0, 0]"] ;
256 -> 257 ;
258 [label="gini = 0.0\nsamples = 6\nvalue = [0, 0, 0, 0, 0, 0, 0, 0, 0, 0, 0, 6]"] ;
256 -> 258 ;
259 [label="Minimum Pressure <= 1002.5\ngini = 0.064\nsamples = 274\nvalue = [0, 0, 0, 0, 0, 6, 1, 0, 2, 0, 0, 265]"] ;
213 -> 259 ;
260 [label="Low Wind SE <= 52.5\ngini = 0.183\nsamples = 71\nvalue = [0, 0, 0, 0, 0, 4, 1, 0, 2, 0, 0, 64]"] ;
259 -> 260 ;
261 [label="Minimum Pressure <= 1001.5\ngini = 0.379\nsamples = 31\nvalue = [0, 0, 0, 0, 0, 4, 1, 0, 2, 0, 0, 24]"] ;
260 -> 261 ;
262 [label="Low Wind NE <= 7.5\ngini = 0.117\nsamples = 16\nvalue = [0, 0, 0, 0, 0, 1, 0, 0, 0, 0, 0, 15]"] ;
261 -> 262 ;
263 [label="Low Wind SW <= 20.0\ngini = 0.5\nsamples = 2\nvalue = [0, 0, 0, 0, 0, 1, 0, 0, 0, 0, 0, 1]"] ;
262 -> 263 ;
264 [label="gini = 0.0\nsamples = 1\nvalue = [0, 0, 0, 0, 0, 0, 0, 0, 0, 0, 0, 1]"] ;
263 -> 264 ;
265 [label="gini = 0.0\nsamples = 1\nvalue = [0, 0, 0, 0, 0, 1, 0, 0, 0, 0, 0, 0]"] ;
263 -> 265 ;
266 [label="gini = 0.0\nsamples = 14\nvalue = [0, 0, 0, 0, 0, 0, 0, 0, 0, 0, 0, 14]"] ;
262 -> 266 ;
267 [label="Low Wind SW <= 27.5\ngini = 0.578\nsamples = 15\nvalue = [0, 0, 0, 0, 0, 3, 1, 0, 2, 0, 0, 9]"] ;
261 -> 267 ;
268 [label="Low Wind NE <= 47.5\ngini = 0.48\nsamples = 5\nvalue = [0, 0, 0, 0, 0, 3, 0, 0, 0, 0, 0, 2]"] ;
267 -> 268 ;
269 [label="Low Wind SE <= 30.0\ngini = 0.444\nsamples = 3\nvalue = [0, 0, 0, 0, 0, 1, 0, 0, 0, 0, 0, 2]"] ;
268 -> 269 ;
270 [label="gini = 0.0\nsamples = 1\nvalue = [0, 0, 0, 0, 0, 1, 0, 0, 0, 0, 0, 0]"] ;
269 -> 270 ;
271 [label="gini = 0.0\nsamples = 2\nvalue = [0, 0, 0, 0, 0, 0, 0, 0, 0, 0, 0, 2]"] ;
269 -> 271 ;
272 [label="gini = 0.0\nsamples = 2\nvalue = [0, 0, 0, 0, 0, 2, 0, 0, 0, 0, 0, 0]"] ;
268 -> 272 ;
273 [label="Low Wind NE <= 37.5\ngini = 0.46\nsamples = 10\nvalue = [0, 0, 0, 0, 0, 0, 1, 0, 2, 0, 0, 7]"] ;
267 -> 273 ;
274 [label="gini = 0.0\nsamples = 4\nvalue = [0, 0, 0, 0, 0, 0, 0, 0, 0, 0, 0, 4]"] ;
273 -> 274 ;
275 [label="Low Wind NW <= 47.5\ngini = 0.611\nsamples = 6\nvalue = [0, 0, 0, 0, 0, 0, 1, 0, 2, 0, 0, 3]"] ;
273 -> 275 ;
276 [label="Low Wind SW <= 42.5\ngini = 0.625\nsamples = 4\nvalue = [0, 0, 0, 0, 0, 0, 1, 0, 2, 0, 0, 1]"] ;
275 -> 276 ;
277 [label="Low Wind NE <= 47.5\ngini = 0.5\nsamples = 2\nvalue = [0, 0, 0, 0, 0, 0, 1, 0, 0, 0, 0, 1]"] ;
276 -> 277 ;
278 [label="gini = 0.0\nsamples = 1\nvalue = [0, 0, 0, 0, 0, 0, 0, 0, 0, 0, 0, 1]"] ;
277 -> 278 ;
279 [label="gini = 0.0\nsamples = 1\nvalue = [0, 0, 0, 0, 0, 0, 1, 0, 0, 0, 0, 0]"] ;
277 -> 279 ;
280 [label="gini = 0.0\nsamples = 2\nvalue = [0, 0, 0, 0, 0, 0, 0, 0, 2, 0, 0, 0]"] ;
276 -> 280 ;
281 [label="gini = 0.0\nsamples = 2\nvalue = [0, 0, 0, 0, 0, 0, 0, 0, 0, 0, 0, 2]"] ;
275 -> 281 ;
282 [label="gini = 0.0\nsamples = 40\nvalue = [0, 0, 0, 0, 0, 0, 0, 0, 0, 0, 0, 40]"] ;
260 -> 282 ;
283 [label="Low Wind SE <= 42.5\ngini = 0.02\nsamples = 203\nvalue = [0, 0, 0, 0, 0, 2, 0, 0, 0, 0, 0, 201]"] ;
259 -> 283 ;
284 [label="Low Wind SE <= 37.5\ngini = 0.034\nsamples = 114\nvalue = [0, 0, 0, 0, 0, 2, 0, 0, 0, 0, 0, 112]"] ;
283 -> 284 ;
285 [label="gini = 0.0\nsamples = 85\nvalue = [0, 0, 0, 0, 0, 0, 0, 0, 0, 0, 0, 85]"] ;
284 -> 285 ;
286 [label="Low Wind SW <= 35.0\ngini = 0.128\nsamples = 29\nvalue = [0, 0, 0, 0, 0, 2, 0, 0, 0, 0, 0, 27]"] ;
284 -> 286 ;
287 [label="Low Wind SW <= 25.0\ngini = 0.245\nsamples = 14\nvalue = [0, 0, 0, 0, 0, 2, 0, 0, 0, 0, 0, 12]"] ;
286 -> 287 ;
288 [label="Minimum Pressure <= 1004.5\ngini = 0.153\nsamples = 12\nvalue = [0, 0, 0, 0, 0, 1, 0, 0, 0, 0, 0, 11]"] ;
287 -> 288 ;
289 [label="gini = 0.0\nsamples = 9\nvalue = [0, 0, 0, 0, 0, 0, 0, 0, 0, 0, 0, 9]"] ;
288 -> 289 ;
290 [label="Low Wind NE <= 55.0\ngini = 0.444\nsamples = 3\nvalue = [0, 0, 0, 0, 0, 1, 0, 0, 0, 0, 0, 2]"] ;
288 -> 290 ;
291 [label="gini = 0.0\nsamples = 2\nvalue = [0, 0, 0, 0, 0, 0, 0, 0, 0, 0, 0, 2]"] ;
290 -> 291 ;
292 [label="gini = 0.0\nsamples = 1\nvalue = [0, 0, 0, 0, 0, 1, 0, 0, 0, 0, 0, 0]"] ;
290 -> 292 ;
293 [label="Minimum Pressure <= 1003.5\ngini = 0.5\nsamples = 2\nvalue = [0, 0, 0, 0, 0, 1, 0, 0, 0, 0, 0, 1]"] ;
287 -> 293 ;
294 [label="gini = 0.0\nsamples = 1\nvalue = [0, 0, 0, 0, 0, 1, 0, 0, 0, 0, 0, 0]"] ;
293 -> 294 ;
295 [label="gini = 0.0\nsamples = 1\nvalue = [0, 0, 0, 0, 0, 0, 0, 0, 0, 0, 0, 1]"] ;
293 -> 295 ;
296 [label="gini = 0.0\nsamples = 15\nvalue = [0, 0, 0, 0, 0, 0, 0, 0, 0, 0, 0, 15]"] ;
286 -> 296 ;
297 [label="gini = 0.0\nsamples = 89\nvalue = [0, 0, 0, 0, 0, 0, 0, 0, 0, 0, 0, 89]"] ;
283 -> 297 ;
298 [label="Minimum Pressure <= 1004.5\ngini = 0.015\nsamples = 1074\nvalue = [0, 0, 0, 0, 0, 6, 0, 0, 2, 0, 0, 1066]"] ;
212 -> 298 ;
299 [label="Maximum Wind <= 42.5\ngini = 0.011\nsamples = 1054\nvalue = [0, 0, 0, 0, 0, 4, 0, 0, 2, 0, 0, 1048]"] ;
298 -> 299 ;
300 [label="Minimum Pressure <= 991.0\ngini = 0.03\nsamples = 266\nvalue = [0, 0, 0, 0, 0, 4, 0, 0, 0, 0, 0, 262]"] ;
299 -> 300 ;
301 [label="gini = 0.0\nsamples = 1\nvalue = [0, 0, 0, 0, 0, 1, 0, 0, 0, 0, 0, 0]"] ;
300 -> 301 ;
302 [label="Minimum Pressure <= 995.0\ngini = 0.022\nsamples = 265\nvalue = [0, 0, 0, 0, 0, 3, 0, 0, 0, 0, 0, 262]"] ;
300 -> 302 ;
303 [label="Low Wind SW <= 12.5\ngini = 0.375\nsamples = 4\nvalue = [0, 0, 0, 0, 0, 1, 0, 0, 0, 0, 0, 3]"] ;
302 -> 303 ;
304 [label="gini = 0.0\nsamples = 1\nvalue = [0, 0, 0, 0, 0, 1, 0, 0, 0, 0, 0, 0]"] ;
303 -> 304 ;
305 [label="gini = 0.0\nsamples = 3\nvalue = [0, 0, 0, 0, 0, 0, 0, 0, 0, 0, 0, 3]"] ;
303 -> 305 ;
306 [label="Minimum Pressure <= 1000.5\ngini = 0.015\nsamples = 261\nvalue = [0, 0, 0, 0, 0, 2, 0, 0, 0, 0, 0, 259]"] ;
302 -> 306 ;
307 [label="Minimum Pressure <= 999.5\ngini = 0.075\nsamples = 51\nvalue = [0, 0, 0, 0, 0, 2, 0, 0, 0, 0, 0, 49]"] ;
306 -> 307 ;
308 [label="gini = 0.0\nsamples = 25\nvalue = [0, 0, 0, 0, 0, 0, 0, 0, 0, 0, 0, 25]"] ;
307 -> 308 ;
309 [label="Low Wind SE <= 70.0\ngini = 0.142\nsamples = 26\nvalue = [0, 0, 0, 0, 0, 2, 0, 0, 0, 0, 0, 24]"] ;
307 -> 309 ;
310 [label="Low Wind SE <= 42.5\ngini = 0.08\nsamples = 24\nvalue = [0, 0, 0, 0, 0, 1, 0, 0, 0, 0, 0, 23]"] ;
309 -> 310 ;
311 [label="Low Wind SW <= 35.0\ngini = 0.18\nsamples = 10\nvalue = [0, 0, 0, 0, 0, 1, 0, 0, 0, 0, 0, 9]"] ;
310 -> 311 ;
312 [label="gini = 0.0\nsamples = 8\nvalue = [0, 0, 0, 0, 0, 0, 0, 0, 0, 0, 0, 8]"] ;
311 -> 312 ;
313 [label="Low Wind NE <= 55.0\ngini = 0.5\nsamples = 2\nvalue = [0, 0, 0, 0, 0, 1, 0, 0, 0, 0, 0, 1]"] ;
311 -> 313 ;
314 [label="gini = 0.0\nsamples = 1\nvalue = [0, 0, 0, 0, 0, 0, 0, 0, 0, 0, 0, 1]"] ;
313 -> 314 ;
315 [label="gini = 0.0\nsamples = 1\nvalue = [0, 0, 0, 0, 0, 1, 0, 0, 0, 0, 0, 0]"] ;
313 -> 315 ;
316 [label="gini = 0.0\nsamples = 14\nvalue = [0, 0, 0, 0, 0, 0, 0, 0, 0, 0, 0, 14]"] ;
310 -> 316 ;
317 [label="Low Wind SW <= 30.0\ngini = 0.5\nsamples = 2\nvalue = [0, 0, 0, 0, 0, 1, 0, 0, 0, 0, 0, 1]"] ;
309 -> 317 ;
318 [label="gini = 0.0\nsamples = 1\nvalue = [0, 0, 0, 0, 0, 0, 0, 0, 0, 0, 0, 1]"] ;
317 -> 318 ;
319 [label="gini = 0.0\nsamples = 1\nvalue = [0, 0, 0, 0, 0, 1, 0, 0, 0, 0, 0, 0]"] ;
317 -> 319 ;
320 [label="gini = 0.0\nsamples = 210\nvalue = [0, 0, 0, 0, 0, 0, 0, 0, 0, 0, 0, 210]"] ;
306 -> 320 ;
321 [label="Low Wind SW <= 85.0\ngini = 0.005\nsamples = 788\nvalue = [0, 0, 0, 0, 0, 0, 0, 0, 2, 0, 0, 786]"] ;
299 -> 321 ;
322 [label="Low Wind SW <= 57.5\ngini = 0.003\nsamples = 717\nvalue = [0, 0, 0, 0, 0, 0, 0, 0, 1, 0, 0, 716]"] ;
321 -> 322 ;
323 [label="gini = 0.0\nsamples = 505\nvalue = [0, 0, 0, 0, 0, 0, 0, 0, 0, 0, 0, 505]"] ;
322 -> 323 ;
324 [label="Maximum Wind <= 47.5\ngini = 0.009\nsamples = 212\nvalue = [0, 0, 0, 0, 0, 0, 0, 0, 1, 0, 0, 211]"] ;
322 -> 324 ;
325 [label="Minimum Pressure <= 998.5\ngini = 0.04\nsamples = 49\nvalue = [0, 0, 0, 0, 0, 0, 0, 0, 1, 0, 0, 48]"] ;
324 -> 325 ;
326 [label="Low Wind SE <= 65.0\ngini = 0.095\nsamples = 20\nvalue = [0, 0, 0, 0, 0, 0, 0, 0, 1, 0, 0, 19]"] ;
325 -> 326 ;
327 [label="Minimum Pressure <= 997.5\ngini = 0.245\nsamples = 7\nvalue = [0, 0, 0, 0, 0, 0, 0, 0, 1, 0, 0, 6]"] ;
326 -> 327 ;
328 [label="gini = 0.0\nsamples = 4\nvalue = [0, 0, 0, 0, 0, 0, 0, 0, 0, 0, 0, 4]"] ;
327 -> 328 ;
329 [label="Low Wind SE <= 50.0\ngini = 0.444\nsamples = 3\nvalue = [0, 0, 0, 0, 0, 0, 0, 0, 1, 0, 0, 2]"] ;
327 -> 329 ;
330 [label="gini = 0.0\nsamples = 1\nvalue = [0, 0, 0, 0, 0, 0, 0, 0, 0, 0, 0, 1]"] ;
329 -> 330 ;
331 [label="gini = 0.5\nsamples = 2\nvalue = [0, 0, 0, 0, 0, 0, 0, 0, 1, 0, 0, 1]"] ;
329 -> 331 ;
332 [label="gini = 0.0\nsamples = 13\nvalue = [0, 0, 0, 0, 0, 0, 0, 0, 0, 0, 0, 13]"] ;
326 -> 332 ;
333 [label="gini = 0.0\nsamples = 29\nvalue = [0, 0, 0, 0, 0, 0, 0, 0, 0, 0, 0, 29]"] ;
325 -> 333 ;
334 [label="gini = 0.0\nsamples = 163\nvalue = [0, 0, 0, 0, 0, 0, 0, 0, 0, 0, 0, 163]"] ;
324 -> 334 ;
335 [label="Minimum Pressure <= 999.5\ngini = 0.028\nsamples = 71\nvalue = [0, 0, 0, 0, 0, 0, 0, 0, 1, 0, 0, 70]"] ;
321 -> 335 ;
336 [label="gini = 0.0\nsamples = 62\nvalue = [0, 0, 0, 0, 0, 0, 0, 0, 0, 0, 0, 62]"] ;
335 -> 336 ;
337 [label="Low Wind NE <= 75.0\ngini = 0.198\nsamples = 9\nvalue = [0, 0, 0, 0, 0, 0, 0, 0, 1, 0, 0, 8]"] ;
335 -> 337 ;
338 [label="gini = 0.0\nsamples = 8\nvalue = [0, 0, 0, 0, 0, 0, 0, 0, 0, 0, 0, 8]"] ;
337 -> 338 ;
339 [label="gini = 0.0\nsamples = 1\nvalue = [0, 0, 0, 0, 0, 0, 0, 0, 1, 0, 0, 0]"] ;
337 -> 339 ;
340 [label="Low Wind NW <= 7.5\ngini = 0.18\nsamples = 20\nvalue = [0, 0, 0, 0, 0, 2, 0, 0, 0, 0, 0, 18]"] ;
298 -> 340 ;
341 [label="Low Wind SW <= 20.0\ngini = 0.5\nsamples = 2\nvalue = [0, 0, 0, 0, 0, 1, 0, 0, 0, 0, 0, 1]"] ;
340 -> 341 ;
342 [label="gini = 0.0\nsamples = 1\nvalue = [0, 0, 0, 0, 0, 1, 0, 0, 0, 0, 0, 0]"] ;
341 -> 342 ;
343 [label="gini = 0.0\nsamples = 1\nvalue = [0, 0, 0, 0, 0, 0, 0, 0, 0, 0, 0, 1]"] ;
341 -> 343 ;
344 [label="Low Wind SE <= 35.0\ngini = 0.105\nsamples = 18\nvalue = [0, 0, 0, 0, 0, 1, 0, 0, 0, 0, 0, 17]"] ;
340 -> 344 ;
345 [label="gini = 0.0\nsamples = 10\nvalue = [0, 0, 0, 0, 0, 0, 0, 0, 0, 0, 0, 10]"] ;
344 -> 345 ;
346 [label="Low Wind SE <= 45.0\ngini = 0.219\nsamples = 8\nvalue = [0, 0, 0, 0, 0, 1, 0, 0, 0, 0, 0, 7]"] ;
344 -> 346 ;
347 [label="Low Wind SW <= 35.0\ngini = 0.444\nsamples = 3\nvalue = [0, 0, 0, 0, 0, 1, 0, 0, 0, 0, 0, 2]"] ;
346 -> 347 ;
348 [label="gini = 0.0\nsamples = 1\nvalue = [0, 0, 0, 0, 0, 1, 0, 0, 0, 0, 0, 0]"] ;
347 -> 348 ;
349 [label="gini = 0.0\nsamples = 2\nvalue = [0, 0, 0, 0, 0, 0, 0, 0, 0, 0, 0, 2]"] ;
347 -> 349 ;
350 [label="gini = 0.0\nsamples = 5\nvalue = [0, 0, 0, 0, 0, 0, 0, 0, 0, 0, 0, 5]"] ;
346 -> 350 ;
351 [label="Maximum Wind <= 52.5\ngini = 0.375\nsamples = 8\nvalue = [0, 0, 2, 0, 0, 0, 0, 0, 0, 0, 0, 6]"] ;
189 -> 351 ;
352 [label="gini = 0.0\nsamples = 2\nvalue = [0, 0, 2, 0, 0, 0, 0, 0, 0, 0, 0, 0]"] ;
351 -> 352 ;
353 [label="gini = 0.0\nsamples = 6\nvalue = [0, 0, 0, 0, 0, 0, 0, 0, 0, 0, 0, 6]"] ;
351 -> 353 ;
354 [label="gini = 0.0\nsamples = 1\nvalue = [0, 0, 0, 0, 0, 0, 0, 0, 1, 0, 0, 0]"] ;
188 -> 354 ;
355 [label="gini = 0.0\nsamples = 2\nvalue = [0, 0, 2, 0, 0, 0, 0, 0, 0, 0, 0, 0]"] ;
187 -> 355 ;
356 [label="Maximum Wind <= 132.5\ngini = 0.007\nsamples = 4723\nvalue = [0, 4, 8, 4707, 1, 0, 0, 0, 0, 3, 0, 0]"] ;
0 -> 356 [labeldistance=2.5, labelangle=-45, headlabel="False"] ;
357 [label="High Wind SE <= 52.5\ngini = 0.006\nsamples = 4629\nvalue = [0, 4, 8, 4616, 1, 0, 0, 0, 0, 0, 0, 0]"] ;
356 -> 357 ;
358 [label="Maximum Wind <= 76.0\ngini = 0.005\nsamples = 4611\nvalue = [0, 4, 8, 4599, 0, 0, 0, 0, 0, 0, 0, 0]"] ;
357 -> 358 ;
359 [label="Maximum Wind <= 72.5\ngini = 0.01\nsamples = 2293\nvalue = [0, 4, 8, 2281, 0, 0, 0, 0, 0, 0, 0, 0]"] ;
358 -> 359 ;
360 [label="Minimum Pressure <= -18.5\ngini = 0.002\nsamples = 1096\nvalue = [0, 1, 0, 1095, 0, 0, 0, 0, 0, 0, 0, 0]"] ;
359 -> 360 ;
361 [label="Maximum Wind <= 67.5\ngini = 0.004\nsamples = 510\nvalue = [0, 1, 0, 509, 0, 0, 0, 0, 0, 0, 0, 0]"] ;
360 -> 361 ;
362 [label="gini = 0.006\nsamples = 308\nvalue = [0, 1, 0, 307, 0, 0, 0, 0, 0, 0, 0, 0]"] ;
361 -> 362 ;
363 [label="gini = 0.0\nsamples = 202\nvalue = [0, 0, 0, 202, 0, 0, 0, 0, 0, 0, 0, 0]"] ;
361 -> 363 ;
364 [label="gini = 0.0\nsamples = 586\nvalue = [0, 0, 0, 586, 0, 0, 0, 0, 0, 0, 0, 0]"] ;
360 -> 364 ;
365 [label="Minimum Pressure <= -18.5\ngini = 0.018\nsamples = 1197\nvalue = [0, 3, 8, 1186, 0, 0, 0, 0, 0, 0, 0, 0]"] ;
359 -> 365 ;
366 [label="gini = 0.023\nsamples = 961\nvalue = [0, 3, 8, 950, 0, 0, 0, 0, 0, 0, 0, 0]"] ;
365 -> 366 ;
367 [label="gini = 0.0\nsamples = 236\nvalue = [0, 0, 0, 236, 0, 0, 0, 0, 0, 0, 0, 0]"] ;
365 -> 367 ;
368 [label="gini = 0.0\nsamples = 2318\nvalue = [0, 0, 0, 2318, 0, 0, 0, 0, 0, 0, 0, 0]"] ;
358 -> 368 ;
369 [label="Minimum Pressure <= 940.0\ngini = 0.105\nsamples = 18\nvalue = [0, 0, 0, 17, 1, 0, 0, 0, 0, 0, 0, 0]"] ;
357 -> 369 ;
370 [label="gini = 0.0\nsamples = 16\nvalue = [0, 0, 0, 16, 0, 0, 0, 0, 0, 0, 0, 0]"] ;
369 -> 370 ;
371 [label="Moderate Wind NW <= 72.5\ngini = 0.5\nsamples = 2\nvalue = [0, 0, 0, 1, 1, 0, 0, 0, 0, 0, 0, 0]"] ;
369 -> 371 ;
372 [label="gini = 0.0\nsamples = 1\nvalue = [0, 0, 0, 0, 1, 0, 0, 0, 0, 0, 0, 0]"] ;
371 -> 372 ;
373 [label="gini = 0.0\nsamples = 1\nvalue = [0, 0, 0, 1, 0, 0, 0, 0, 0, 0, 0, 0]"] ;
371 -> 373 ;
374 [label="Low Wind SW <= 77.5\ngini = 0.062\nsamples = 94\nvalue = [0, 0, 0, 91, 0, 0, 0, 0, 0, 3, 0, 0]"] ;
356 -> 374 ;
375 [label="gini = 0.0\nsamples = 65\nvalue = [0, 0, 0, 65, 0, 0, 0, 0, 0, 0, 0, 0]"] ;
374 -> 375 ;
376 [label="Moderate Wind NW <= 55.0\ngini = 0.185\nsamples = 29\nvalue = [0, 0, 0, 26, 0, 0, 0, 0, 0, 3, 0, 0]"] ;
374 -> 376 ;
377 [label="gini = 0.0\nsamples = 2\nvalue = [0, 0, 0, 0, 0, 0, 0, 0, 0, 2, 0, 0]"] ;
376 -> 377 ;
378 [label="Low Wind SE <= 117.5\ngini = 0.071\nsamples = 27\nvalue = [0, 0, 0, 26, 0, 0, 0, 0, 0, 1, 0, 0]"] ;
376 -> 378 ;
379 [label="Moderate Wind NE <= 80.0\ngini = 0.375\nsamples = 4\nvalue = [0, 0, 0, 3, 0, 0, 0, 0, 0, 1, 0, 0]"] ;
378 -> 379 ;
380 [label="gini = 0.0\nsamples = 3\nvalue = [0, 0, 0, 3, 0, 0, 0, 0, 0, 0, 0, 0]"] ;
379 -> 380 ;
381 [label="gini = 0.0\nsamples = 1\nvalue = [0, 0, 0, 0, 0, 0, 0, 0, 0, 1, 0, 0]"] ;
379 -> 381 ;
382 [label="gini = 0.0\nsamples = 23\nvalue = [0, 0, 0, 23, 0, 0, 0, 0, 0, 0, 0, 0]"] ;
378 -> 382 ;
}